352194 256
， -0.052543 0.083925 -0.059799 -0.113671 -0.026479 -0.029369 0.026032 0.160726 -0.067759 -0.016235 0.025974 -0.032661 -0.130933 -0.148762 0.064998 0.135202 0.087978 -0.195905 0.123668 -0.049227 -0.013748 0.146376 -0.063818 0.041844 0.034130 -0.165979 -0.042815 -0.161674 -0.011436 0.006019 -0.113048 -0.104997 -0.088419 0.049592 0.058596 0.041788 0.079142 0.019044 0.027088 0.156963 -0.033863 0.010552 0.146514 -0.026130 0.100992 -0.086931 0.030558 -0.015791 -0.141678 -0.048167 -0.030874 0.091428 -0.029386 -0.001432 0.012632 -0.035059 -0.001831 0.080191 -0.002489 0.036200 0.035742 -0.042730 0.118766 0.009973 -0.025269 -0.027870 0.051073 0.105112 -0.074780 0.091023 -0.073391 -0.064727 -0.118873 -0.010295 -0.017127 -0.116819 -0.205516 -0.052125 -0.239064 -0.223300 -0.089346 -0.208313 -0.103953 -0.128089 -0.005737 -0.043982 0.024997 -0.041280 -0.014464 0.026568 0.097866 -0.119397 0.184400 -0.021878 -0.232039 0.119776 -0.176008 0.115795 0.001286 -0.008042 0.046788 -0.095346 0.060436 -0.232324 0.087814 0.004987 -0.001523 0.082134 -0.071460 -0.006277 -0.113990 0.010373 0.135772 -0.029219 0.104791 -0.016196 0.022116 -0.015839 0.128374 -0.060498 0.120366 -0.091702 0.103402 -0.111449 0.104271 -0.092465 0.030391 0.020178 0.085231 0.035950 0.127074 0.092470 0.100896 0.001399 -0.005728 0.034747 -0.063808 0.168847 0.069089 0.013428 0.098840 -0.038886 -0.021686 0.121857 0.000323 0.081704 -0.008667 0.070896 -0.097091 0.115730 0.105326 0.078575 0.181872 0.000078 -0.102690 0.115696 0.033964 -0.086732 -0.009648 -0.242810 0.064416 0.197985 -0.122608 0.103352 0.025535 0.125246 -0.064942 -0.068701 -0.087613 0.041089 -0.156365 0.024690 -0.037571 -0.099199 0.108393 -0.022850 -0.127876 -0.048150 0.059965 0.000158 0.029328 -0.026899 -0.119144 0.120842 -0.055607 -0.029553 -0.082306 0.071503 -0.130607 0.013923 0.037327 -0.126217 0.207419 -0.107737 0.054674 -0.000912 0.008288 -0.016863 0.110726 0.076029 -0.070394 -0.058845 0.022865 0.053464 0.018822 -0.026100 -0.016504 -0.002636 0.088346 0.016765 0.015962 0.114726 0.015170 0.039310 0.021285 0.080085 0.183181 0.028774 -0.011013 0.143530 0.022559 0.000112 -0.113529 0.049862 0.021206 -0.312073 -0.164178 0.003822 0.070310 -0.034358 0.141745 0.092307 -0.125032 -0.029901 -0.089527 0.003246 -0.009504 0.038155 -0.113100 0.023469 -0.025392 -0.050978 0.077934 -0.120006 0.055671 0.119129 -0.062780 0.053399 0.108651 -0.153403 -0.009708 0.045346 0.001357 -0.005239 0.096434 0.006384
的 -0.035861 0.141607 -0.066937 -0.146819 0.044618 0.036917 0.023851 0.140376 -0.010297 0.051677 -0.018700 -0.019022 -0.049066 -0.037681 0.027417 0.220508 0.097346 -0.250506 0.109089 -0.129309 -0.012863 0.110344 -0.096189 0.108096 -0.012391 -0.064684 -0.041956 -0.184321 0.011725 -0.015468 -0.042941 -0.095076 -0.081317 0.066091 0.072223 0.015852 0.090708 -0.023722 -0.072849 0.184882 -0.007504 0.068676 0.131344 -0.062600 0.030514 -0.186693 0.094937 -0.026471 -0.220129 -0.049539 -0.054455 0.046091 0.061720 -0.066077 0.083755 -0.090572 0.054283 0.060428 0.010082 -0.086108 0.063937 -0.063345 0.168252 0.055923 0.042016 0.001220 -0.013347 0.146754 -0.117009 0.054806 -0.075421 -0.037313 -0.173493 -0.014327 0.001460 -0.105851 -0.116519 -0.062724 -0.093925 -0.177885 -0.103570 -0.171168 -0.135968 -0.132321 -0.047411 0.050783 0.033808 0.013170 -0.025454 -0.021218 0.144659 -0.010395 0.140341 -0.043728 -0.204848 0.097912 -0.191241 0.129193 0.064530 -0.045086 0.009126 0.009144 0.063017 -0.169647 -0.032246 0.034645 0.043154 0.045183 -0.025389 -0.031121 -0.079193 -0.007839 0.017624 -0.045514 0.073227 0.115405 0.000233 -0.012706 0.114774 -0.062741 0.120978 -0.084790 0.042375 -0.102139 0.072776 -0.060760 -0.013840 -0.006651 -0.019023 0.149156 0.158274 0.048905 0.051703 0.022908 0.002026 0.018480 0.018056 0.102556 0.040793 0.049984 0.123684 0.035307 0.090875 0.105436 -0.081655 0.093948 0.000415 0.104315 0.026742 0.111485 0.203755 0.075923 0.131121 0.005837 -0.088007 0.088316 0.076233 0.063613 0.010125 -0.221902 0.082850 0.121575 -0.042784 0.065310 0.111206 0.124948 -0.089997 -0.052129 -0.176004 0.029841 -0.212033 -0.013378 -0.099708 -0.105775 0.127662 -0.106255 -0.021062 -0.022361 0.015053 0.051127 0.062278 0.006431 -0.157349 0.098894 -0.110603 -0.054052 -0.049026 -0.008004 -0.089586 0.042773 -0.046287 -0.081195 0.180705 0.004556 -0.015252 -0.018162 0.048746 0.003416 0.145026 0.050824 0.008632 -0.050626 0.043433 0.148806 0.012386 -0.142133 0.018735 -0.083328 0.026786 0.085178 -0.011096 0.103147 -0.024228 0.041601 -0.033577 -0.014644 0.182672 -0.005579 0.079137 0.042026 -0.042615 -0.067027 -0.042156 0.077514 0.004219 -0.300380 -0.168905 -0.026386 0.131720 -0.065494 0.075379 0.060740 -0.127386 -0.026304 -0.082314 0.058112 0.049981 -0.034968 -0.098063 -0.017497 -0.004379 -0.081413 0.029454 -0.171254 0.019658 0.135007 -0.125565 -0.004313 0.088507 -0.102723 -0.008912 0.027358 -0.021516 -0.018804 0.031850 -0.031812
。 -0.058610 0.079953 -0.041294 -0.077977 -0.028644 0.007793 0.042696 0.219339 -0.055669 -0.014005 -0.007235 -0.061793 -0.131055 -0.081926 0.062114 0.129405 0.069325 -0.156345 0.076339 -0.035849 -0.071901 0.099497 -0.067595 0.053915 0.009719 -0.113976 -0.059235 -0.164776 0.088049 -0.050945 -0.147886 -0.102905 -0.077207 -0.030276 0.030762 0.052280 0.053826 0.026056 -0.002521 0.170031 0.026566 -0.023490 0.079200 -0.042868 -0.000342 -0.072504 0.058729 -0.067070 -0.070536 -0.077456 -0.043513 0.072317 0.013228 -0.003888 0.035099 -0.000726 -0.018638 0.066878 -0.066890 0.076495 0.017834 -0.033800 0.051635 0.008987 -0.019782 -0.054579 -0.000502 0.135721 -0.046484 0.073076 -0.099232 -0.027938 -0.138884 -0.061835 0.005806 -0.058906 -0.178524 -0.060271 -0.182861 -0.152032 -0.046213 -0.158283 -0.186055 -0.096754 -0.010264 -0.136852 0.079366 -0.006744 -0.084923 -0.005816 0.106811 -0.098804 0.172270 -0.070975 -0.202450 0.123639 -0.190138 0.078314 0.062250 0.072858 0.052302 -0.052260 0.092239 -0.233944 0.078827 0.005176 0.016636 0.073300 -0.103147 0.081622 -0.111951 0.009411 0.114739 0.032491 0.069537 0.020142 0.063173 0.016133 0.129411 -0.033619 0.101522 -0.021760 0.049710 -0.043781 0.050974 -0.023510 0.073083 -0.015986 0.110841 0.045278 0.126399 0.082711 0.045003 0.048622 0.023731 0.049931 -0.076812 0.178142 0.027318 0.013265 0.087770 -0.060542 -0.024214 0.047920 0.005991 0.151876 -0.011319 0.136504 -0.045566 0.090387 0.150317 0.040933 0.161717 -0.023998 -0.029507 0.138107 0.088583 0.041309 0.066536 -0.202327 0.062131 0.167762 -0.078229 0.065248 0.034802 0.094671 -0.079475 -0.083965 -0.129079 0.046858 -0.176850 0.034229 0.011564 -0.072096 0.107812 0.005270 -0.022211 -0.024542 0.048026 0.020716 0.085851 -0.012009 -0.135037 0.164908 -0.058068 -0.005032 -0.080797 0.033956 -0.132963 0.032809 -0.022953 -0.092116 0.169585 -0.090369 0.020857 0.019556 0.057463 -0.081523 0.068871 0.100373 -0.051011 -0.050573 0.010561 0.081852 0.039999 -0.114560 -0.069532 -0.019068 0.074842 0.005283 -0.018379 0.189103 -0.047092 -0.011556 -0.002473 -0.002228 0.167478 -0.022675 -0.059416 0.143900 -0.016162 0.023032 -0.060053 0.036918 0.076582 -0.304024 -0.149280 -0.011062 0.105973 0.001835 0.076366 0.070183 -0.157443 -0.024287 -0.105069 0.074148 -0.016700 0.079582 -0.144509 0.006994 -0.006933 -0.068078 0.103632 -0.106810 0.057248 0.112193 -0.078110 0.048048 0.092655 -0.142007 -0.033975 0.070054 -0.061253 -0.061746 0.068434 0.039508
、 -0.005824 -0.002201 -0.118985 -0.081650 -0.199419 -0.053949 0.109218 0.140176 -0.032740 -0.058217 -0.044294 -0.028251 -0.187676 -0.089963 0.060028 0.273421 -0.047474 -0.187512 0.138004 0.082635 -0.125992 0.190314 -0.014191 0.060212 -0.071907 -0.346791 -0.109134 -0.077573 -0.000319 -0.194443 -0.101690 -0.152374 0.079892 0.160397 0.091699 0.068024 -0.092532 0.089666 -0.061676 0.227890 0.040455 0.067463 0.070803 0.029231 0.183004 0.072022 0.215780 -0.049878 -0.087822 -0.031467 -0.204050 0.004966 -0.095730 -0.015493 -0.052864 -0.167461 0.005839 0.219819 -0.073595 0.192651 0.081777 0.016466 0.099506 0.143754 0.153982 0.055961 -0.026729 0.067483 -0.076619 0.087592 -0.157429 -0.020087 -0.212657 -0.021662 0.042411 -0.220474 0.057168 0.017892 -0.136070 -0.130515 -0.149749 -0.084221 -0.006323 -0.058601 -0.144775 0.020322 0.035341 0.093396 -0.217895 0.075082 0.023712 -0.140721 0.002160 -0.035675 -0.106117 0.055705 -0.268331 0.127363 0.085447 -0.040097 0.007427 -0.006855 0.034552 -0.288088 -0.070898 -0.090328 -0.056859 -0.018676 -0.067655 -0.147350 -0.121410 0.040403 0.076155 -0.110827 -0.018466 0.022257 -0.192521 -0.018739 0.205567 -0.144718 0.169175 -0.065265 -0.013969 -0.099840 0.003029 -0.149042 -0.058599 0.073620 0.078397 0.004883 0.069123 0.108194 0.011413 0.053816 0.083973 0.057685 -0.143167 0.235994 0.008086 -0.090392 0.122390 -0.149723 0.088373 0.007427 0.001412 -0.042964 -0.105298 -0.034736 0.002098 0.190110 -0.029631 0.077492 0.188451 0.019728 0.007459 0.262076 0.029236 0.036969 -0.154043 -0.127298 0.212898 0.165469 0.020844 0.103007 0.000090 0.165465 -0.056854 0.001856 -0.241649 -0.004177 -0.337111 -0.060432 0.013253 -0.067993 0.213682 -0.003997 0.101485 -0.110604 -0.036449 0.108918 0.146492 -0.271439 -0.055334 0.133892 -0.054226 0.052751 -0.074522 0.036110 -0.003733 -0.045815 -0.148483 -0.038384 0.108052 -0.056705 0.090475 0.145575 0.091898 0.067435 0.041489 0.030194 0.061204 0.054808 0.044450 -0.218670 0.089982 -0.084287 -0.155963 -0.047855 0.007109 -0.000921 -0.180133 0.266211 0.213815 0.049586 -0.021140 0.169060 0.122530 0.001975 0.061860 0.142783 0.059302 0.194326 -0.222583 -0.107037 0.021792 -0.010523 0.096027 0.021614 0.214901 -0.009681 -0.102446 0.076393 -0.052981 -0.150602 -0.111464 -0.057791 0.013133 0.126959 -0.099396 0.180550 -0.271064 0.017002 0.116126 -0.037503 -0.056785 0.058603 -0.016710 -0.047316 0.331464 -0.090246 0.061476 -0.104954 -0.035953 -0.075290 -0.057337 -0.053715
是 0.093744 0.058110 -0.112259 -0.166133 0.005506 0.122236 0.062247 0.199222 0.039879 0.049024 -0.069475 0.059306 0.114878 -0.122786 -0.012692 0.139893 0.046265 -0.257298 0.090545 -0.108096 0.056115 0.104448 -0.054167 0.100403 0.002166 -0.014514 0.004768 -0.106742 0.002025 -0.027442 -0.126863 -0.268594 -0.110244 -0.038036 -0.045551 -0.002619 0.033930 -0.005072 -0.049604 0.216286 0.025752 -0.035654 0.183136 -0.136859 -0.019890 -0.080792 0.139662 0.014964 -0.135086 -0.115493 -0.112870 0.047413 0.111245 0.072228 0.070746 -0.135799 -0.073947 0.030836 -0.060118 -0.077563 0.023670 -0.136827 0.195429 -0.027332 0.050435 -0.014952 -0.089095 0.141948 -0.165671 -0.000466 -0.087209 -0.032262 -0.183682 -0.065687 0.103018 -0.124806 -0.047085 -0.010437 -0.121999 -0.097172 -0.069867 -0.067613 -0.155752 -0.074076 -0.091914 -0.000869 0.075102 0.030193 -0.044209 -0.068183 0.139870 -0.014824 0.151007 0.010168 -0.199919 0.087947 -0.142803 0.163186 0.155820 -0.011323 0.008536 0.077429 -0.075323 -0.184788 0.028712 0.021937 0.003425 0.096552 0.058388 0.089295 -0.066104 -0.070586 -0.011313 -0.173513 0.132596 0.120483 -0.014490 -0.039645 0.132576 0.025390 0.163698 -0.103761 -0.098449 -0.141347 0.150583 -0.053605 0.104690 -0.022769 -0.012324 0.218336 0.067604 0.039206 0.045321 -0.042756 -0.038575 0.070168 0.024874 0.015131 -0.010151 0.134546 0.086646 0.040696 0.057426 0.084618 0.024177 0.094332 -0.071572 0.093023 0.009762 0.017443 0.269807 0.145543 0.230003 0.019574 0.069229 0.230097 0.126241 0.047412 0.036539 -0.086265 0.088198 0.022165 -0.034121 0.050887 0.101745 0.085084 -0.148858 0.004231 -0.128771 0.108401 -0.173005 -0.097540 -0.146343 -0.030336 0.108669 -0.074351 0.054680 -0.074741 -0.058803 0.113079 0.145076 0.109773 -0.216504 0.079578 -0.089017 -0.033608 -0.076971 0.135506 -0.048849 0.094295 -0.002928 0.033492 0.208234 0.003922 0.072441 -0.064225 0.035220 -0.013894 0.146986 0.064395 -0.044434 -0.083473 0.108363 0.097363 0.029921 -0.152228 -0.025689 -0.186225 0.045275 0.087708 -0.037698 0.084085 -0.103466 0.033835 -0.078509 -0.065728 0.032782 0.086742 0.067911 0.120959 0.004479 -0.050434 0.131196 -0.017636 -0.114957 -0.055125 -0.148608 0.017005 0.151535 0.041442 0.201042 -0.125825 -0.183174 -0.000671 -0.090499 0.126466 0.086387 0.032337 -0.108275 -0.012036 0.007573 -0.147059 0.164669 -0.147019 0.052415 0.235882 -0.065254 0.155008 0.128564 -0.063453 -0.056684 -0.016677 0.017565 -0.049896 0.130281 0.033987
了 -0.015085 0.085444 -0.083856 0.010686 0.139254 -0.043398 -0.051119 0.183197 -0.087123 0.012473 -0.099281 -0.025818 -0.123896 -0.013015 0.026888 0.195322 0.040112 -0.160779 0.103589 0.185173 0.166048 0.072184 -0.046695 0.051466 0.019512 0.027873 -0.015045 -0.156623 -0.032559 0.119263 -0.193240 -0.095156 -0.065587 -0.018950 0.091146 0.034217 0.140839 0.011204 0.038525 0.120347 0.115136 -0.037157 0.202841 -0.079565 0.037813 -0.192026 0.020143 0.022504 -0.073710 -0.020945 -0.048723 0.012730 0.012941 -0.023685 0.212761 -0.039181 -0.005272 0.062833 -0.074743 -0.046768 0.052812 -0.088529 0.017471 0.120978 -0.076175 0.012018 0.024153 0.015587 -0.124659 0.077755 -0.059377 0.056457 -0.032305 -0.007396 -0.140917 -0.055834 -0.080658 0.086104 -0.042709 -0.049843 -0.063297 -0.237416 -0.117236 -0.029341 -0.006421 -0.071164 0.129704 0.059822 0.061676 0.061689 0.236890 -0.041469 0.167020 0.122925 -0.142935 0.078051 -0.079633 0.024910 0.009653 0.065443 -0.004529 -0.091548 0.035661 -0.242053 0.165712 0.012896 0.007823 -0.010241 -0.015446 0.024709 -0.040706 -0.071811 -0.038519 0.033197 0.139572 0.140429 -0.038442 0.073256 0.157516 -0.064654 0.071792 -0.038775 0.050593 -0.201760 0.175289 -0.017169 0.080558 -0.083762 0.043873 0.020287 0.102688 0.215168 0.221216 0.028089 0.052332 0.099764 -0.148075 0.125888 -0.055022 -0.072023 0.224107 0.024852 0.122733 0.058920 -0.004234 0.249133 0.049730 0.086922 0.119197 0.271694 0.254843 0.115099 0.246467 -0.174566 0.001791 0.074668 0.098896 -0.064975 0.075156 -0.160348 0.111709 0.211021 -0.043297 0.068219 0.137105 -0.000864 -0.079524 -0.177277 -0.156574 -0.039377 -0.199905 0.035694 0.124932 -0.216457 0.251942 0.050028 -0.118504 0.037597 0.061741 0.023560 0.003252 -0.070896 -0.139239 0.160144 0.026790 0.033406 -0.116612 0.062047 0.055330 0.069620 -0.011835 0.013818 0.168169 -0.056808 -0.123294 -0.090437 -0.102536 0.026813 0.218479 -0.037946 0.033146 -0.076531 0.031259 0.100972 -0.054404 -0.004138 0.127557 -0.132045 0.149920 -0.012117 0.078252 0.038227 0.009377 -0.006190 -0.158282 0.028991 0.184295 -0.023203 0.025551 0.026121 0.070115 -0.126296 0.172446 -0.138834 0.035829 -0.385759 -0.020087 0.074941 0.094070 -0.098846 0.145807 0.029920 -0.131670 0.132661 -0.089415 0.028001 -0.000245 0.004778 -0.136634 -0.038551 0.026878 -0.153739 -0.227018 -0.086374 -0.008578 0.207059 -0.027983 -0.041487 0.182884 -0.091037 0.078986 0.001046 -0.069421 0.133006 0.046722 0.090636
： -0.100847 0.103343 -0.065180 0.152041 -0.150397 0.129292 0.057057 -0.033658 0.125060 -0.064502 -0.186087 0.021442 0.093537 -0.111168 -0.130043 0.172317 -0.111505 -0.045574 0.155177 -0.107175 -0.000351 0.058928 0.012121 0.229128 0.254525 -0.296701 -0.117966 -0.200952 -0.081945 -0.035594 -0.252354 -0.125974 0.019047 0.100084 -0.048207 -0.047206 0.097027 -0.095918 -0.008839 0.162686 0.186626 -0.084922 0.187477 0.034250 0.011620 0.070708 -0.080580 -0.155317 -0.135602 -0.095862 -0.250698 -0.008643 -0.106383 0.000547 0.022350 -0.019266 0.224805 0.037064 0.109624 -0.021360 0.183981 0.004530 0.156739 0.064583 0.072109 -0.001366 -0.107747 -0.062481 -0.041398 0.023150 -0.096885 -0.078945 -0.061132 -0.286885 0.192971 0.159124 -0.131971 -0.031595 -0.187057 -0.027159 -0.056470 0.079382 -0.030227 -0.062853 0.012816 -0.170219 -0.052899 -0.221687 -0.134750 0.063140 -0.068371 -0.235414 0.060803 0.057050 -0.231414 0.265737 -0.308582 0.004914 0.232190 0.020841 -0.053043 -0.193655 0.127078 -0.232336 -0.114049 0.070336 -0.007400 0.153159 -0.005935 0.170257 -0.312077 0.109792 0.358398 0.096427 0.030427 -0.355950 0.129330 -0.143194 0.089711 -0.021745 0.074386 0.062422 -0.064129 0.110999 0.013277 0.089053 0.034667 -0.023396 0.165229 -0.127065 0.011148 0.179006 -0.003927 -0.187044 -0.195081 0.057709 0.038964 0.117769 -0.070944 0.100788 0.056173 -0.245352 0.153642 0.138767 -0.108107 0.158069 -0.066620 0.186554 0.275692 0.169167 -0.003316 0.078256 0.111000 0.092908 0.167610 0.070274 -0.023382 0.103066 -0.018997 -0.226702 -0.039425 0.214921 -0.049112 0.013287 0.030071 0.188848 -0.086049 0.010025 -0.023160 0.094028 -0.242280 0.144364 0.248626 -0.136399 0.004467 0.082463 0.016983 -0.130354 -0.030307 -0.123030 -0.131844 -0.080032 0.079297 0.078237 -0.049841 -0.015885 0.087994 0.071310 -0.234611 -0.162102 -0.165886 0.062190 0.034607 0.241972 -0.000462 0.146274 0.103963 -0.122498 -0.000894 -0.063263 0.027450 -0.118013 0.039994 0.072630 0.071370 -0.061068 -0.050963 -0.168388 0.008865 -0.201842 0.048473 0.222862 0.026487 -0.191283 0.004750 -0.114932 0.076157 0.056597 -0.142251 0.193464 -0.161850 0.097162 -0.000402 -0.100765 0.155530 -0.206137 -0.069235 -0.005363 0.220021 0.048369 0.100325 0.003525 -0.181927 -0.034690 0.151158 -0.009956 0.278376 0.182221 -0.002999 0.152742 -0.001279 -0.144011 0.120373 0.088259 0.137600 -0.144753 -0.009510 0.044334 0.196430 -0.073250 -0.077894 -0.099401 -0.023815 -0.166794 0.241096 -0.035373
在 0.073371 0.028720 -0.118976 -0.057481 -0.056459 -0.015562 -0.106839 0.203510 0.010790 0.033575 -0.032239 0.103164 -0.042022 -0.043803 0.137013 0.273834 0.109213 -0.230679 0.128799 0.011787 -0.070402 0.145028 -0.137553 0.026761 0.014662 -0.033979 -0.196772 -0.108107 -0.014872 -0.044486 -0.072802 -0.086688 -0.284706 0.040114 -0.009681 -0.024291 0.107185 -0.129260 -0.155937 0.055017 0.007765 -0.079743 0.192089 0.007826 -0.065771 -0.156455 0.059751 -0.008714 -0.149757 -0.197872 0.005504 0.031804 -0.012578 -0.037724 0.057761 -0.095754 -0.006866 -0.048228 0.043786 -0.055457 -0.040370 -0.028365 -0.030489 0.074408 0.028670 -0.042741 0.146209 0.014683 0.012928 0.131103 0.052995 0.043430 -0.082741 -0.132220 0.075492 -0.023754 -0.149346 -0.021094 -0.032680 -0.067703 -0.149579 -0.118831 -0.117881 0.031232 -0.069918 0.170789 0.052797 -0.021058 0.010579 0.020603 0.090484 0.000879 0.093541 0.084416 -0.163755 0.054454 -0.118597 0.074269 -0.009267 -0.053308 0.121969 -0.028397 0.092198 -0.147274 -0.005404 0.121124 0.141362 0.162357 -0.066017 0.014994 0.037092 -0.089074 0.065137 -0.161074 0.040467 0.157899 -0.051610 -0.117016 0.190093 -0.020544 0.065982 -0.190962 0.053554 -0.027289 0.142880 0.030571 -0.019855 0.090076 0.068711 0.217450 0.036762 0.050114 0.025792 0.064416 -0.027138 -0.074570 -0.103906 0.230879 0.095265 -0.039087 0.019341 -0.040742 0.106472 0.127070 -0.211935 0.091605 0.007064 -0.001365 0.040064 0.192092 0.204138 0.016046 0.084320 -0.022666 0.004266 0.266608 0.158173 -0.081069 -0.126479 -0.219489 -0.028637 0.170651 -0.105179 0.096284 -0.018261 0.184527 -0.146511 -0.125239 -0.075075 0.037857 -0.265735 -0.054246 0.032762 -0.026572 -0.004561 -0.158691 -0.132015 -0.038644 0.012445 -0.039891 0.059763 0.101874 -0.186295 0.065139 0.011056 -0.092932 -0.040407 0.102847 -0.051157 0.040131 -0.090016 0.023427 0.121402 0.067346 -0.018890 -0.044829 0.181272 -0.043497 0.180801 0.129392 0.034376 -0.200103 0.110380 0.106389 -0.016874 0.010743 0.081847 0.024929 0.047085 0.087969 -0.025113 0.089556 0.076996 0.086629 -0.080865 0.093771 0.230374 0.036968 -0.053399 0.055504 0.061562 -0.148479 -0.062901 0.057733 0.071280 -0.248117 -0.323256 -0.012073 0.041352 0.038360 0.231309 0.082003 -0.182676 0.155743 -0.130772 0.052586 -0.005969 -0.005990 -0.153205 0.026741 0.031732 -0.044256 -0.118217 -0.026537 0.001762 0.128730 -0.085197 -0.013216 0.042132 -0.139171 0.003029 0.036209 -0.080234 0.000294 0.064252 0.015082
“ -0.026925 -0.151773 0.028246 0.124157 -0.227597 0.106317 0.061705 -0.071055 -0.075739 0.153041 0.134594 0.109733 0.063453 0.021819 -0.214303 -0.005662 -0.118892 -0.291722 0.060508 0.018911 0.068307 0.122758 0.040500 0.173381 0.065518 0.087844 -0.027832 -0.075646 0.071565 -0.041109 -0.048809 -0.197715 -0.346408 0.154048 0.005331 -0.014948 0.108241 -0.063131 0.034772 0.076837 0.140470 0.013561 0.036399 -0.013403 -0.048894 -0.098614 0.009120 0.016175 0.022338 -0.029461 0.001964 0.220052 0.142247 0.009551 0.027609 -0.203135 -0.087679 0.090406 0.012600 -0.131345 -0.040547 -0.005673 0.067605 0.170022 -0.120070 0.035548 -0.012627 0.078813 0.249291 0.098257 -0.046444 -0.200466 -0.040741 -0.218543 0.038885 0.013742 0.025006 -0.206503 -0.038201 -0.175611 -0.103787 -0.100599 -0.008018 -0.113095 0.013843 -0.197653 0.008675 -0.118243 0.004726 0.118171 0.283149 -0.043226 0.339616 0.075877 -0.110156 0.074526 -0.174316 -0.055866 0.307257 0.255303 -0.121129 -0.004631 0.106670 -0.303414 0.076817 -0.085556 -0.020688 0.094790 -0.111294 0.157686 -0.134548 -0.224710 0.077475 -0.025783 0.092492 0.077655 -0.106374 -0.195329 0.297082 0.070645 -0.036284 0.081024 0.109783 -0.002381 0.206892 0.079934 -0.024190 0.007345 0.070219 0.059954 0.264656 0.223389 0.050698 -0.180830 -0.047286 0.102822 0.112033 0.050127 -0.015277 0.125247 0.101938 -0.124708 0.059512 0.004827 -0.453306 -0.035847 0.166632 0.144203 0.064051 0.079510 0.015165 0.209448 0.275783 -0.106538 -0.045811 0.165941 0.139421 -0.041723 0.046211 -0.339375 0.150322 0.231595 -0.028716 -0.055397 0.136540 0.001928 -0.012114 -0.035883 -0.130702 0.115475 -0.319727 0.052494 0.068536 -0.119915 0.017165 -0.090103 0.008887 -0.018674 0.051579 -0.106195 0.040629 0.040512 -0.039616 0.208393 -0.059897 -0.167364 -0.148246 0.090977 -0.098318 -0.127827 -0.154151 0.112270 0.114240 0.080550 0.102918 0.011126 -0.110869 0.215825 0.248812 0.060439 -0.028683 -0.050495 0.137173 0.262333 -0.118381 -0.023221 -0.109044 0.116496 0.111447 -0.153050 -0.025149 -0.034474 -0.073508 0.122491 0.016392 -0.259507 0.081757 0.083133 -0.165955 0.022073 -0.094139 0.028313 0.016245 0.110241 0.068550 -0.265170 -0.016621 0.017642 0.147876 -0.203264 -0.001000 0.065198 -0.189430 0.105540 -0.043332 -0.071682 0.180695 0.040068 -0.070231 0.024256 -0.044448 -0.148837 0.025551 -0.142706 0.048577 0.167099 -0.198536 0.068473 0.166066 -0.192173 -0.174014 0.064744 0.144347 -0.126861 -0.005512 -0.036203
” 0.017052 -0.124843 0.029331 0.143774 -0.230319 0.083233 0.031712 -0.062910 -0.107133 0.091427 0.119716 0.064683 0.090488 0.060783 -0.179598 0.058003 -0.077768 -0.284824 0.036606 0.036866 0.032107 0.111399 0.054048 0.189565 0.050898 0.030174 -0.091717 -0.068041 0.092164 -0.046229 -0.038662 -0.192073 -0.314465 0.146965 -0.029355 -0.006992 0.125201 -0.094835 0.098420 0.106002 0.101777 0.027576 0.086164 -0.042070 -0.037706 -0.060331 0.086619 0.035901 0.011856 -0.041301 -0.010732 0.188037 0.123123 0.013896 0.035930 -0.245237 -0.070633 0.101476 -0.025410 -0.158231 -0.035647 -0.004285 0.039213 0.181389 -0.137604 0.033748 -0.036563 0.173437 0.214458 0.112790 -0.067310 -0.189554 -0.044480 -0.166116 0.025017 0.000750 0.005802 -0.189549 -0.063634 -0.111486 -0.066489 -0.109124 -0.052906 -0.137183 0.022811 -0.170712 0.009676 -0.135565 0.026784 0.088321 0.306223 -0.116014 0.373269 0.097211 -0.064042 0.129949 -0.145064 -0.074904 0.285972 0.227966 -0.074154 0.012699 0.115940 -0.225609 0.112660 -0.019781 -0.013180 0.130557 -0.108885 0.145582 -0.098944 -0.211802 0.040219 -0.008363 0.109677 0.118065 -0.120724 -0.144335 0.256047 0.093888 -0.025972 0.076983 0.117790 -0.029081 0.271761 0.090180 -0.048220 -0.063482 -0.007432 0.063044 0.197257 0.240387 0.072051 -0.145304 -0.025259 0.133204 0.100362 0.015074 -0.029673 0.086490 0.078348 -0.103274 0.059352 -0.005857 -0.425960 0.043951 0.128114 0.135461 0.050483 0.100261 0.034000 0.201546 0.260562 -0.087557 -0.083315 0.218655 0.116680 -0.090044 0.066645 -0.262820 0.171135 0.224391 0.012860 0.001456 0.085772 -0.000381 -0.020582 0.006609 -0.099493 0.104755 -0.343714 0.010982 -0.003030 -0.045184 0.022623 -0.089863 0.048849 0.005153 0.022718 -0.108071 0.134739 0.004592 -0.039681 0.202216 -0.055059 -0.199268 -0.100041 0.070781 -0.086842 -0.064040 -0.159765 0.092811 0.139167 0.062724 0.104216 0.005682 -0.061711 0.218684 0.269158 0.093177 -0.045287 -0.109086 0.110629 0.235937 -0.089306 0.044690 -0.104914 0.094289 0.138266 -0.160604 -0.044495 -0.074323 -0.100104 0.070351 0.029593 -0.234285 0.086153 0.143057 -0.129259 0.011415 -0.108786 0.048347 0.009694 0.085074 0.100598 -0.265715 -0.052592 -0.001226 0.190479 -0.163400 0.005183 0.027968 -0.206989 0.098635 -0.061333 -0.102404 0.116048 0.040215 -0.039906 0.090179 -0.011936 -0.094774 0.017313 -0.149222 0.078167 0.206541 -0.140580 0.077133 0.187773 -0.115770 -0.182933 0.055904 0.116033 -0.136294 0.032484 -0.039307
. 0.059082 0.086339 -0.026132 0.115581 -0.113475 0.182863 0.012761 -0.021592 -0.068390 -0.014049 -0.037679 -0.062526 -0.091785 0.020761 -0.121854 0.315118 0.013907 -0.105580 0.120739 0.093779 -0.128299 0.398426 0.153452 0.131180 0.132671 -0.047153 -0.115942 -0.196958 -0.040906 0.017991 -0.149327 -0.272094 -0.047701 -0.009937 -0.191084 0.029051 0.095692 0.144798 -0.021182 0.197467 0.352960 0.136657 0.164960 0.110424 -0.006717 -0.035027 0.011041 -0.176263 0.182121 -0.018886 -0.223973 0.109584 -0.113055 -0.031051 0.201334 0.066903 -0.026326 -0.091172 0.044785 0.004661 -0.002531 0.195413 0.232866 0.139656 -0.229478 0.051834 0.086865 0.164314 -0.221582 -0.036776 -0.031032 0.099559 0.035804 -0.157388 -0.069165 -0.125474 -0.191540 -0.354601 -0.266885 -0.218807 -0.063138 0.032491 -0.204710 -0.010016 -0.115376 -0.146301 0.091928 -0.204025 0.152795 -0.058565 -0.136534 -0.131576 0.116377 0.316113 -0.102837 0.262296 -0.321219 0.173802 0.408192 -0.029284 0.010719 -0.167243 0.174302 -0.274268 -0.107606 0.013309 0.000588 -0.214765 0.050479 0.099695 0.023501 0.266922 0.143488 0.109806 -0.018901 -0.058368 0.266426 -0.011679 0.251243 0.045943 0.068314 0.124716 -0.049609 -0.066859 -0.201248 0.218703 0.088046 -0.068647 0.157488 0.153966 0.076217 -0.007936 0.024979 -0.113243 0.104564 0.042058 0.080030 0.134739 0.149119 0.044251 -0.043150 0.091520 -0.010158 0.043458 -0.338956 0.172728 0.072122 -0.032458 0.101206 -0.038448 -0.070888 0.067867 0.201361 0.162731 0.265707 0.095593 0.111265 -0.271872 -0.051162 -0.196791 -0.082881 -0.038703 0.134852 -0.046111 0.189006 0.048780 -0.184413 -0.212814 -0.167806 -0.048103 -0.165645 0.052548 0.165261 -0.066822 0.045059 0.077135 -0.086976 0.146176 -0.129380 -0.001974 -0.239923 -0.247993 -0.001876 0.263202 0.104759 0.111369 -0.455485 -0.170147 -0.004154 -0.133293 0.044269 -0.082896 -0.069902 0.095371 -0.112563 -0.111295 0.070320 -0.129155 -0.045478 -0.252884 -0.144250 -0.121728 0.178966 0.199615 0.170349 0.054916 0.065416 -0.009187 0.084284 -0.178493 -0.127251 0.094018 -0.032231 -0.074427 -0.032159 0.005283 -0.011031 -0.069404 -0.309214 0.292316 -0.195832 -0.050629 0.079435 -0.014713 0.211935 -0.188117 0.107868 0.051673 -0.003208 0.186197 0.003918 0.009054 -0.037540 0.164792 -0.025504 -0.003116 0.061875 -0.028042 -0.079133 0.326190 -0.028898 -0.065506 0.240389 0.068278 0.058493 0.045844 -0.191876 -0.089732 -0.269050 -0.057307 -0.010036 0.131207 -0.003109 -0.112385 0.141604 -0.222930
和 0.015897 0.081466 -0.089631 -0.099685 -0.058704 0.022625 0.145393 0.131517 -0.020010 -0.057231 -0.129715 0.058876 -0.071834 0.011364 0.033048 0.278330 0.096468 -0.206032 0.144689 -0.121662 -0.037962 0.210762 -0.107910 0.115071 -0.109189 -0.033732 -0.080104 -0.159766 0.121344 -0.012390 -0.103826 -0.074207 0.006732 0.088499 0.128619 0.123430 0.003247 -0.008309 0.006960 0.213270 -0.051123 0.000180 -0.003134 -0.019597 0.042463 -0.050455 0.166890 -0.047461 -0.144093 -0.092557 -0.105361 -0.033550 -0.050326 -0.019805 0.093110 -0.018735 -0.015539 0.012745 0.020695 0.012188 0.074494 -0.074665 0.175875 0.059978 0.087407 0.064917 -0.031466 0.093838 -0.083627 0.045105 -0.030450 -0.076725 -0.140228 -0.009253 -0.074008 -0.198034 -0.130531 -0.133840 -0.077001 -0.182093 -0.210258 -0.146112 -0.169851 -0.098385 -0.133089 0.039764 -0.006341 0.131615 -0.020121 0.010921 0.133040 0.024074 0.172388 -0.062658 -0.104378 0.065607 -0.198904 0.148513 0.127372 -0.007864 -0.099341 0.046134 0.010479 -0.167535 0.023532 -0.004834 0.076317 0.033570 -0.063385 -0.117281 -0.102087 -0.011178 0.027847 -0.137578 0.050295 0.094423 -0.046848 0.024282 0.069032 -0.049668 0.190959 0.040415 0.063783 -0.048246 0.001420 -0.065500 -0.029761 0.018425 -0.107934 0.183663 0.124066 0.045850 0.030813 0.051505 -0.007049 -0.020522 -0.078124 0.211187 0.006970 -0.064822 0.152830 -0.127188 0.098215 0.155976 0.047025 0.079080 -0.096669 0.038707 0.096401 0.058298 0.131365 0.139467 0.111976 0.032754 -0.097903 0.092404 0.105438 -0.008534 -0.039627 -0.201200 0.037288 0.065679 0.047391 0.002056 0.005848 0.264754 0.000500 -0.051634 -0.148633 0.063286 -0.335348 -0.072018 -0.079058 -0.060526 0.116399 -0.079060 -0.008645 -0.103987 0.031211 0.015586 0.143251 -0.035145 -0.132117 0.187715 0.044407 -0.052261 -0.064343 -0.050311 -0.090704 -0.054883 -0.095768 -0.033986 0.129323 -0.028779 0.022263 0.077639 0.005805 -0.005182 0.094261 0.101410 -0.028038 -0.011872 -0.025159 -0.031979 0.031552 -0.222498 0.006292 0.002962 -0.041106 0.170262 -0.153583 0.190787 0.116386 0.027289 -0.030398 0.000221 0.232293 0.090191 -0.046868 0.008011 0.001411 0.077679 -0.141419 0.020085 -0.029754 -0.236463 -0.084240 -0.029735 0.156183 -0.019918 -0.054405 0.009147 -0.150003 -0.020207 -0.093694 0.015022 -0.001598 0.032370 -0.125070 -0.021510 -0.130194 -0.020256 0.007275 -0.110803 -0.049833 0.131264 -0.043277 -0.082955 0.178378 -0.080331 0.002497 0.065199 -0.078797 -0.050032 -0.059711 0.004654
　 -0.166526 0.111326 -0.155041 -0.178431 -0.133198 0.199135 -0.017315 0.340759 0.031293 -0.054226 -0.298702 -0.082363 -0.156115 -0.015659 -0.018433 0.162561 -0.063989 -0.073457 -0.017207 0.148933 -0.246983 0.072229 -0.088032 0.051949 0.074565 0.026714 -0.139143 -0.033355 0.028111 -0.134811 -0.232660 0.010989 -0.101916 -0.009634 -0.007198 -0.009128 0.006312 0.069869 -0.132918 0.349656 0.161080 0.094214 0.020752 0.002237 -0.056364 -0.092170 -0.062338 -0.107118 0.037105 -0.187683 -0.157372 -0.087814 0.094324 0.022908 0.106206 0.027130 0.080831 -0.102542 0.034987 0.225140 0.090878 -0.070283 0.098474 0.279487 0.105676 -0.121715 0.018629 0.295860 0.016849 -0.101830 -0.293066 0.110041 0.057793 -0.206593 0.034583 0.037091 -0.034550 0.057401 -0.200324 0.118431 -0.187927 -0.059395 -0.256321 -0.011966 -0.174437 -0.097119 0.185909 -0.093655 -0.151996 0.118658 -0.141589 -0.194116 0.081901 -0.073256 -0.019712 0.068805 -0.192923 0.069508 0.077787 0.301670 0.142454 0.079339 0.379198 -0.255550 0.032602 -0.015167 -0.068847 0.092152 -0.026151 -0.006967 -0.088650 0.021374 0.016907 0.267275 0.112434 0.019368 0.175932 -0.063214 0.165120 0.138324 0.067715 -0.049107 -0.011555 -0.001522 -0.015025 0.104362 0.231151 0.017800 0.252928 0.134525 0.240905 0.187200 0.045401 0.140193 -0.011357 -0.090169 -0.156048 0.199019 -0.020344 0.033012 0.037634 -0.147359 0.032682 -0.097476 -0.041824 0.250585 -0.072211 0.029981 0.079807 0.114222 0.241060 0.112558 -0.028421 0.083198 0.084687 0.141965 0.157192 0.248567 0.238666 -0.183630 0.137058 0.164576 0.045730 0.070676 0.040465 0.088447 -0.110887 -0.178610 -0.207522 -0.045431 -0.381048 0.043934 0.022157 -0.097196 0.200920 0.082492 0.003696 -0.000658 0.074928 -0.032142 0.257254 -0.008306 -0.279789 0.126144 -0.057580 -0.082480 -0.130680 0.013008 -0.122336 0.121031 -0.104261 -0.001578 0.163750 0.123647 -0.153122 0.164831 0.077774 0.043991 0.065779 0.137979 0.081521 -0.048521 0.201040 0.118056 0.026390 -0.057009 -0.133658 -0.064693 -0.100277 -0.043155 -0.029440 0.126344 -0.149898 -0.137750 0.028497 -0.001899 0.201082 -0.003574 -0.062662 0.055260 -0.014271 -0.011134 0.085740 -0.068027 0.063598 -0.324725 -0.147784 -0.139113 0.158255 -0.249591 -0.034342 -0.104192 -0.164211 0.183476 -0.188739 0.125636 0.057338 0.072340 -0.270412 0.059358 -0.156259 -0.029651 0.157268 -0.146486 0.099360 0.104882 -0.208053 0.020046 0.245327 -0.091261 -0.039425 0.113214 -0.104402 -0.101655 0.210873 -0.030320
